
J48 pruned tree
------------------

plas <= 127
|   age <= 28: tested_negative (243.0/20.0)
|   age > 28
|   |   mass <= 26.3: tested_negative (39.0/2.0)
|   |   mass > 26.3
|   |   |   plas <= 99: tested_negative (48.0/9.0)
|   |   |   plas > 99
|   |   |   |   pedi <= 0.561: tested_negative (77.0/32.0)
|   |   |   |   pedi > 0.561: tested_positive (33.0/8.0)
plas > 127
|   mass <= 29.9
|   |   plas <= 145: tested_negative (36.0/5.0)
|   |   plas > 145: tested_positive (33.0/15.0)
|   mass > 29.9
|   |   pres <= 61: tested_positive (22.0)
|   |   pres > 61
|   |   |   plas <= 157
|   |   |   |   age <= 30: tested_negative (40.0/13.0)
|   |   |   |   age > 30: tested_positive (54.0/13.0)
|   |   |   plas > 157: tested_positive (75.0/10.0)

Number of Leaves  : 	11

Size of the tree : 	21



=== Error on test data ===

Correctly Classified Instances          51               75      %
Incorrectly Classified Instances        17               25      %
Kappa statistic                          0.3476
Mean absolute error                      0.3002
Root mean squared error                  0.4225
Total Number of Instances               68     


=== Detailed Accuracy By Class ===

               TP Rate   FP Rate   Precision   Recall  F-Measure   ROC Area  Class
                 0.808     0.438      0.857     0.808     0.832      0.758    tested_negative
                 0.563     0.192      0.474     0.563     0.514      0.758    tested_positive
Weighted Avg.    0.75      0.38       0.767     0.75      0.757      0.758


=== Confusion Matrix ===

  a  b   <-- classified as
 42 10 |  a = tested_negative
  7  9 |  b = tested_positive

